Language model created by QuickLM on Wed Jun 27 05:11:43 EDT 2018
Copyright (c) 1996-2010 Carnegie Mellon University and Alexander I. Rudnicky

The model is in standard ARPA format, designed by Doug Paul while he was at MITRE.

The code that was used to produce this language model is available in Open Source.
Please visit http://www.speech.cs.cmu.edu/tools/ for more information

The (fixed) discount mass is 0.5. The backoffs are computed using the ratio method.
This model based on a corpus of 20 sentences and 28 words

\data\
ngram 1=28
ngram 2=49
ngram 3=49

\1-grams:
-0.9542 </s> -0.3010
-0.9542 <s> -0.2499
-2.2553 ARE -0.2962
-1.9542 BROWSER -0.2499
-2.2553 CAN -0.2962
-2.2553 CAPITAL -0.2962
-1.5563 CLOSE -0.2762
-2.2553 DO -0.2499
-1.9542 EXPLORER -0.2499
-2.2553 GOOGLE -0.2499
-1.9542 INDIA -0.2499
-1.9542 IS -0.2962
-2.2553 MINISTER -0.2962
-1.9542 NOTEPAD -0.2499
-1.9542 OF -0.2962
-1.3522 OPEN -0.2659
-2.2553 PLAY -0.2986
-1.9542 POWERPOINT -0.2499
-1.9542 PRIME -0.2472
-2.2553 RESTART -0.2499
-2.2553 SHUTDOWN -0.2499
-1.9542 THE -0.2937
-2.2553 TICTACTOE -0.2499
-1.9542 WHAT -0.2937
-1.9542 WHO -0.2937
-1.9542 WORD -0.2499
-1.9542 YOU -0.2472
-2.2553 YOUTUBE -0.2499

\2-grams:
-0.9031 <s> CLOSE 0.0000
-0.6990 <s> OPEN 0.0000
-1.6021 <s> PLAY 0.0000
-1.6021 <s> RESTART 0.0000
-1.6021 <s> SHUTDOWN 0.0000
-1.3010 <s> WHAT 0.0000
-1.3010 <s> WHO 0.0000
-0.3010 ARE YOU -0.1761
-0.3010 BROWSER </s> -0.3010
-0.3010 CAN YOU -0.1761
-0.3010 CAPITAL OF 0.0000
-1.0000 CLOSE BROWSER 0.0000
-1.0000 CLOSE EXPLORER 0.0000
-1.0000 CLOSE NOTEPAD 0.0000
-1.0000 CLOSE POWERPOINT 0.0000
-1.0000 CLOSE WORD 0.0000
-0.3010 DO </s> -0.3010
-0.3010 EXPLORER </s> -0.3010
-0.3010 GOOGLE </s> -0.3010
-0.3010 INDIA </s> -0.3010
-0.3010 IS THE 0.0000
-0.3010 MINISTER OF 0.0000
-0.3010 NOTEPAD </s> -0.3010
-0.3010 OF INDIA 0.0000
-1.2041 OPEN BROWSER 0.0000
-1.2041 OPEN EXPLORER 0.0000
-1.2041 OPEN GOOGLE 0.0000
-1.2041 OPEN NOTEPAD 0.0000
-1.2041 OPEN POWERPOINT 0.0000
-1.2041 OPEN PRIME -0.1761
-1.2041 OPEN WORD 0.0000
-1.2041 OPEN YOUTUBE 0.0000
-0.3010 PLAY TICTACTOE 0.0000
-0.3010 POWERPOINT </s> -0.3010
-0.6021 PRIME </s> -0.3010
-0.6021 PRIME MINISTER 0.0000
-0.3010 RESTART </s> -0.3010
-0.3010 SHUTDOWN </s> -0.3010
-0.6021 THE CAPITAL 0.0000
-0.6021 THE PRIME -0.1761
-0.3010 TICTACTOE </s> -0.3010
-0.6021 WHAT CAN 0.0000
-0.6021 WHAT IS 0.0000
-0.6021 WHO ARE 0.0000
-0.6021 WHO IS 0.0000
-0.3010 WORD </s> -0.3010
-0.6021 YOU </s> -0.3010
-0.6021 YOU DO 0.0000
-0.3010 YOUTUBE </s> -0.3010

\3-grams:
-1.0000 <s> CLOSE BROWSER
-1.0000 <s> CLOSE EXPLORER
-1.0000 <s> CLOSE NOTEPAD
-1.0000 <s> CLOSE POWERPOINT
-1.0000 <s> CLOSE WORD
-1.2041 <s> OPEN BROWSER
-1.2041 <s> OPEN EXPLORER
-1.2041 <s> OPEN GOOGLE
-1.2041 <s> OPEN NOTEPAD
-1.2041 <s> OPEN POWERPOINT
-1.2041 <s> OPEN PRIME
-1.2041 <s> OPEN WORD
-1.2041 <s> OPEN YOUTUBE
-0.3010 <s> PLAY TICTACTOE
-0.3010 <s> RESTART </s>
-0.3010 <s> SHUTDOWN </s>
-0.6021 <s> WHAT CAN
-0.6021 <s> WHAT IS
-0.6021 <s> WHO ARE
-0.6021 <s> WHO IS
-0.3010 ARE YOU </s>
-0.3010 CAN YOU DO
-0.3010 CAPITAL OF INDIA
-0.3010 CLOSE BROWSER </s>
-0.3010 CLOSE EXPLORER </s>
-0.3010 CLOSE NOTEPAD </s>
-0.3010 CLOSE POWERPOINT </s>
-0.3010 CLOSE WORD </s>
-0.6021 IS THE CAPITAL
-0.6021 IS THE PRIME
-0.3010 MINISTER OF INDIA
-0.3010 OF INDIA </s>
-0.3010 OPEN BROWSER </s>
-0.3010 OPEN EXPLORER </s>
-0.3010 OPEN GOOGLE </s>
-0.3010 OPEN NOTEPAD </s>
-0.3010 OPEN POWERPOINT </s>
-0.3010 OPEN PRIME </s>
-0.3010 OPEN WORD </s>
-0.3010 OPEN YOUTUBE </s>
-0.3010 PLAY TICTACTOE </s>
-0.3010 PRIME MINISTER OF
-0.3010 THE CAPITAL OF
-0.3010 THE PRIME MINISTER
-0.3010 WHAT CAN YOU
-0.3010 WHAT IS THE
-0.3010 WHO ARE YOU
-0.3010 WHO IS THE
-0.3010 YOU DO </s>

\end\
